{"sizes":[9,3,9],"layers":[{"A2":{},"C3":{},"A3":{},"B2":{},"B1":{},"B3":{},"A1":{},"C2":{},"C1":{}},{"0":{"bias":-3.6358017921447754,"weights":{"A2":-0.14308780431747437,"C3":-0.05744361877441406,"A3":-0.1693759262561798,"B2":0.020337188616394997,"B1":0.18699701130390167,"B3":-0.17628753185272217,"A1":-0.08372904360294342,"C2":0.06496930122375488,"C1":0.06217585876584053}},"1":{"bias":-3.6304237842559814,"weights":{"A2":-0.17738647758960724,"C3":-0.16295529901981354,"A3":0.17213453352451324,"B2":0.1172114908695221,"B1":0.1959095448255539,"B3":-0.019156252965331078,"A1":0.17956788837909698,"C2":-0.16865713894367218,"C1":0.07629425078630447}},"2":{"bias":-3.631598472595215,"weights":{"A2":0.0069509088061749935,"C3":-0.12309160083532333,"A3":0.16777417063713074,"B2":0.09853608161211014,"B1":0.0802614614367485,"B3":0.03277304768562317,"A1":0.10055913776159286,"C2":-0.13748309016227722,"C1":-0.009075853042304516}}},{"C2":{"bias":-1.993065357208252,"weights":{"0":-0.7781046628952026,"1":-0.8220954537391663,"2":-0.8463810086250305}},"A1":{"bias":-1.7378028631210327,"weights":{"0":-0.7977937459945679,"1":-0.8451542854309082,"2":-0.8644265532493591}},"C3":{"bias":-2.0050065517425537,"weights":{"0":-0.8543993830680847,"1":-0.9037556648254395,"2":-0.8909708857536316}},"B3":{"bias":-1.7194111347198486,"weights":{"0":-0.8340120911598206,"1":-0.7123763561248779,"2":-0.7576862573623657}},"B1":{"bias":-2.3527753353118896,"weights":{"0":-1.20108962059021,"1":-1.2319364547729492,"2":-1.2367314100265503}},"B2":{"bias":-2.139317274093628,"weights":{"0":-0.8481554985046387,"1":-0.9623987674713135,"2":-1.009472131729126}},"A3":{"bias":-2.0409774780273438,"weights":{"0":-0.8189886212348938,"1":-0.9504497647285461,"2":-0.9268341064453125}},"C1":{"bias":-2.0254757404327393,"weights":{"0":-0.8824403882026672,"1":-0.9148281812667847,"2":-0.9076088070869446}},"A2":{"bias":-2.341313362121582,"weights":{"0":-1.244486689567566,"1":-1.3228367567062378,"2":-1.1614519357681274}}}],"outputLookup":true,"inputLookup":true,"activation":"sigmoid","trainOpts":{"iterations":20000,"errorThresh":0.005,"log":false,"logPeriod":10,"learningRate":0.3,"momentum":0.1,"callbackPeriod":10,"beta1":0.9,"beta2":0.999,"epsilon":1e-8}}